<?xml version="1.0"?>
<opencv_storage>
<cascade>
  <stageType>BOOST</stageType>
  <featureType>HAAR</featureType>
  <height>32</height>
  <width>32</width>
  <stageParams>
    <boostType>GAB</boostType>
    <minHitRate>9.9500000476837158e-01</minHitRate>
    <maxFalseAlarm>5.0000000000000000e-01</maxFalseAlarm>
    <weightTrimRate>9.4999998807907104e-01</weightTrimRate>
    <maxDepth>1</maxDepth>
    <maxWeakCount>100</maxWeakCount></stageParams>
  <featureParams>
    <maxCatCount>0</maxCatCount>
    <featSize>1</featSize>
    <mode>BASIC</mode></featureParams>
  <stageNum>6</stageNum>
  <stages>
    <!-- stage 0 -->
    <_>
      <maxWeakCount>3</maxWeakCount>
      <stageThreshold>-1.3756004571914673e+00</stageThreshold>
      <weakClassifiers>
        <_>
          <internalNodes>
            0 -1 11 -5.0149047747254372e-03</internalNodes>
          <leafValues>
            1. -9.7628456354141235e-01</leafValues></_>
        <_>
          <internalNodes>
            0 -1 3 -1.3439936563372612e-02</internalNodes>
          <leafValues>
            5.1226389408111572e-01 -9.8564881086349487e-01</leafValues></_>
        <_>
          <internalNodes>
            0 -1 12 -6.9286050274968147e-03</internalNodes>
          <leafValues>
            8.7395095825195313e-01 -9.1157984733581543e-01</leafValues></_></weakClassifiers></_>
    <!-- stage 1 -->
    <_>
      <maxWeakCount>2</maxWeakCount>
      <stageThreshold>-3.8857579231262207e-01</stageThreshold>
      <weakClassifiers>
        <_>
          <internalNodes>
            0 -1 14 -5.4074684157967567e-03</internalNodes>
          <leafValues>
            7.0731705427169800e-01 -9.8601400852203369e-01</leafValues></_>
        <_>
          <internalNodes>
            0 -1 7 -4.4894842430949211e-03</internalNodes>
          <leafValues>
            5.9743815660476685e-01 -9.7406053543090820e-01</leafValues></_></weakClassifiers></_>
    <!-- stage 2 -->
    <_>
      <maxWeakCount>3</maxWeakCount>
      <stageThreshold>-1.3750612735748291e+00</stageThreshold>
      <weakClassifiers>
        <_>
          <internalNodes>
            0 -1 1 -5.4540969431400299e-02</internalNodes>
          <leafValues>
            8.5185188055038452e-01 -9.6650248765945435e-01</leafValues></_>
        <_>
          <internalNodes>
            0 -1 15 3.0263211578130722e-02</internalNodes>
          <leafValues>
            -9.5464736223220825e-01 6.2844723463058472e-01</leafValues></_>
        <_>
          <internalNodes>
            0 -1 5 -1.4201406389474869e-02</internalNodes>
          <leafValues>
            5.4608851671218872e-01 -9.2357099056243896e-01</leafValues></_></weakClassifiers></_>
    <!-- stage 3 -->
    <_>
      <maxWeakCount>3</maxWeakCount>
      <stageThreshold>-1.2499092817306519e+00</stageThreshold>
      <weakClassifiers>
        <_>
          <internalNodes>
            0 -1 0 -7.5690887868404388e-02</internalNodes>
          <leafValues>
            4.1463413834571838e-01 -9.7402596473693848e-01</leafValues></_>
        <_>
          <internalNodes>
            0 -1 13 1.1651925742626190e-02</internalNodes>
          <leafValues>
            -8.8753241300582886e-01 8.4020924568176270e-01</leafValues></_>
        <_>
          <internalNodes>
            0 -1 16 -5.1106080412864685e-02</internalNodes>
          <leafValues>
            7.7121019363403320e-01 -7.7701103687286377e-01</leafValues></_></weakClassifiers></_>
    <!-- stage 4 -->
    <_>
      <maxWeakCount>4</maxWeakCount>
      <stageThreshold>-2.0942051410675049e+00</stageThreshold>
      <weakClassifiers>
        <_>
          <internalNodes>
            0 -1 10 1.2466676533222198e-02</internalNodes>
          <leafValues>
            -9.6270853281021118e-01 1.</leafValues></_>
        <_>
          <internalNodes>
            0 -1 8 -3.5521979443728924e-03</internalNodes>
          <leafValues>
            6.8693429231643677e-01 -8.9457976818084717e-01</leafValues></_>
        <_>
          <internalNodes>
            0 -1 6 -4.0284253656864166e-02</internalNodes>
          <leafValues>
            6.2349134683609009e-01 -9.1619020700454712e-01</leafValues></_>
        <_>
          <internalNodes>
            0 -1 17 -1.1163183808093891e-04</internalNodes>
          <leafValues>
            6.7927342653274536e-01 -9.2235404253005981e-01</leafValues></_></weakClassifiers></_>
    <!-- stage 5 -->
    <_>
      <maxWeakCount>3</maxWeakCount>
      <stageThreshold>-1.2227301597595215e+00</stageThreshold>
      <weakClassifiers>
        <_>
          <internalNodes>
            0 -1 4 1.2044916301965714e-01</internalNodes>
          <leafValues>
            -9.8216056823730469e-01 1.</leafValues></_>
        <_>
          <internalNodes>
            0 -1 2 -3.9109103381633759e-02</internalNodes>
          <leafValues>
            1. -9.7188067436218262e-01</leafValues></_>
        <_>
          <internalNodes>
            0 -1 9 -1.2888045050203800e-02</internalNodes>
          <leafValues>
            7.3131108283996582e-01 -1.</leafValues></_></weakClassifiers></_></stages>
  <features>
    <_>
      <rects>
        <_>
          0 2 12 9 -1.</_>
        <_>
          6 2 6 9 2.</_></rects>
      <tilted>0</tilted></_>
    <_>
      <rects>
        <_>
          1 0 2 30 -1.</_>
        <_>
          1 10 2 10 3.</_></rects>
      <tilted>0</tilted></_>
    <_>
      <rects>
        <_>
          2 0 1 30 -1.</_>
        <_>
          2 10 1 10 3.</_></rects>
      <tilted>0</tilted></_>
    <_>
      <rects>
        <_>
          3 1 8 4 -1.</_>
        <_>
          3 3 8 2 2.</_></rects>
      <tilted>0</tilted></_>
    <_>
      <rects>
        <_>
          5 7 13 15 -1.</_>
        <_>
          5 12 13 5 3.</_></rects>
      <tilted>0</tilted></_>
    <_>
      <rects>
        <_>
          5 10 4 18 -1.</_>
        <_>
          5 10 2 9 2.</_>
        <_>
          7 19 2 9 2.</_></rects>
      <tilted>0</tilted></_>
    <_>
      <rects>
        <_>
          7 14 14 8 -1.</_>
        <_>
          7 18 14 4 2.</_></rects>
      <tilted>0</tilted></_>
    <_>
      <rects>
        <_>
          9 12 3 6 -1.</_>
        <_>
          10 12 1 6 3.</_></rects>
      <tilted>0</tilted></_>
    <_>
      <rects>
        <_>
          10 15 3 2 -1.</_>
        <_>
          11 15 1 2 3.</_></rects>
      <tilted>0</tilted></_>
    <_>
      <rects>
        <_>
          12 11 3 14 -1.</_>
        <_>
          12 18 3 7 2.</_></rects>
      <tilted>0</tilted></_>
    <_>
      <rects>
        <_>
          12 14 3 3 -1.</_>
        <_>
          13 14 1 3 3.</_></rects>
      <tilted>0</tilted></_>
    <_>
      <rects>
        <_>
          13 8 2 8 -1.</_>
        <_>
          13 8 1 4 2.</_>
        <_>
          14 12 1 4 2.</_></rects>
      <tilted>0</tilted></_>
    <_>
      <rects>
        <_>
          14 10 3 8 -1.</_>
        <_>
          15 10 1 8 3.</_></rects>
      <tilted>0</tilted></_>
    <_>
      <rects>
        <_>
          18 13 3 4 -1.</_>
        <_>
          19 13 1 4 3.</_></rects>
      <tilted>0</tilted></_>
    <_>
      <rects>
        <_>
          20 12 3 4 -1.</_>
        <_>
          21 12 1 4 3.</_></rects>
      <tilted>0</tilted></_>
    <_>
      <rects>
        <_>
          22 6 2 15 -1.</_>
        <_>
          22 11 2 5 3.</_></rects>
      <tilted>0</tilted></_>
    <_>
      <rects>
        <_>
          23 1 8 15 -1.</_>
        <_>
          27 1 4 15 2.</_></rects>
      <tilted>0</tilted></_>
    <_>
      <rects>
        <_>
          25 5 1 4 -1.</_>
        <_>
          25 7 1 2 2.</_></rects>
      <tilted>0</tilted></_></features></cascade>
</opencv_storage>
